{"triplane_resolution": 2048, "triplane_voxel_size": 0.001953125, "sparse_grid_resolution": 512, "sparse_grid_voxel_size": 0.0078125, "range_features": [-7.0, 7.0], "range_density": [-14.0, 14.0], "data_block_size": 8, "atlas_width": 1305, "atlas_height": 1251, "atlas_depth": 9, "num_slices": 9, "slice_depth": 1, "0_weights": [[-0.6444344520568848, 3.21588397026062, -3.6184566020965576, -0.2416132390499115, -0.8849428296089172, 0.3013279139995575, 0.1737791746854782, -0.24630700051784515, -3.2701516151428223, 0.6921533346176147, -0.11475125700235367, -0.840617835521698, -1.1748600006103516, 0.14502982795238495, -0.6238996982574463, 0.6316397190093994], [1.7405999898910522, -1.8220981359481812, 0.00010280744754709303, 0.3663499057292938, 0.8824684023857117, -1.103901743888855, 0.9137676954269409, -0.18905049562454224, 0.0561959408223629, 0.42996707558631897, -1.9667268991470337, -1.1490063667297363, 0.39691027998924255, 0.5945990681648254, -0.5383830070495605, 0.03289271891117096], [2.571225881576538, -0.1440057009458542, -1.998172640800476, 0.19869156181812286, -1.988081455230713, -3.659728527069092, -0.6510759592056274, -0.23901204764842987, 0.6100362539291382, -0.5927653312683105, -2.6168975830078125, -2.8572731018066406, -0.062045443803071976, 0.64938884973526, -0.8536446690559387, -0.9918377995491028], [0.7809709906578064, 0.4592881202697754, -0.1756821572780609, -0.13449294865131378, 0.3964916169643402, 0.8020898699760437, 0.78696608543396, 0.08631644397974014, -1.1374742984771729, -0.8846961855888367, -0.11987617611885071, -0.7418864965438843, 1.0016498565673828, 0.9532240629196167, 0.8278893828392029, 0.18524467945098877], [0.08896994590759277, -0.26323822140693665, 0.05080703645944595, -0.34550940990448, -0.38198575377464294, -2.8223719596862793, 0.8210614323616028, -0.43477553129196167, 0.33690211176872253, 1.6232836246490479, 0.24780023097991943, 0.09696025401353836, 0.9844188690185547, 0.9406734704971313, 0.31725746393203735, 2.5773935317993164], [1.6443861722946167, 0.9395331740379333, -0.07958377152681351, -0.1306990534067154, 1.6892952919006348, 1.8448877334594727, 1.0355446338653564, -0.3449060618877411, 0.1153663918375969, 0.484663724899292, -11.566875457763672, 0.27648109197616577, 1.8313268423080444, 1.8440788984298706, -0.6593145132064819, -0.022688381373882294], [0.42194071412086487, 0.05451280251145363, 0.65362548828125, -0.10483043640851974, -1.6053376197814941, -0.9251977205276489, -0.040785256773233414, 0.05858103558421135, 0.2137376368045807, -1.9398714303970337, -9.314428329467773, 0.489497572183609, 0.26302430033683777, 0.7603105902671814, 1.8297557830810547, 0.3725391924381256], [-0.16327300667762756, 0.013149578124284744, -0.3077136278152466, 0.11440075933933258, 0.3726575970649719, -0.05297563970088959, -0.3656943738460541, -0.3659290671348572, 0.22592557966709137, -0.24105526506900787, -0.2625094950199127, 0.1711185872554779, 0.22696471214294434, 0.6384355425834656, 0.018238389864563942, 0.0763995572924614], [-0.05737500265240669, -0.09633171558380127, -0.15395449101924896, -0.2161962240934372, -0.008610064163804054, -0.024307556450366974, 0.36454930901527405, 0.07667026668787003, -0.518468976020813, -0.2969202995300293, 0.4548115134239197, 0.2479948252439499, -0.10651884973049164, 0.32825642824172974, 0.21214216947555542, 0.030750218778848648], [0.38954704999923706, 0.16274482011795044, 0.08053264766931534, 0.41884636878967285, 0.2933720350265503, 0.18386109173297882, 0.07140343636274338, 0.3077917993068695, 0.2720606327056885, -0.032187264412641525, 0.4222342073917389, -0.2581048607826233, -0.32190051674842834, -0.10237140953540802, -0.10826964676380157, -0.06688451766967773], [0.09215135127305984, -0.3542248606681824, -0.47906050086021423, -0.07480702549219131, -0.26925674080848694, -0.14665593206882477, -0.2731042206287384, -0.08178237825632095, -0.25550463795661926, 0.42694318294525146, -0.07113325595855713, 0.08347128331661224, -0.11642871797084808, -0.1413573920726776, -0.0575830340385437, -0.38264256715774536], [-0.49308693408966064, -0.13139833509922028, -0.8071117401123047, 0.10763941705226898, 0.37605786323547363, 0.12260561436414719, 0.5010184645652771, -0.2445680797100067, -0.03293966129422188, -0.7253738045692444, 0.21829929947853088, -0.19460470974445343, 0.29358312487602234, 0.15153564512729645, 0.23833902180194855, 0.00449182977899909], [-0.3052001893520355, 0.04730740934610367, 0.019587835296988487, 0.0006902310415171087, -0.2878143787384033, -0.2701192796230316, 0.2840867340564728, 0.12143418937921524, -0.07841850817203522, 0.22677414119243622, 0.4677049517631531, -0.004043101333081722, 0.2714047133922577, 0.3616677522659302, 0.21586191654205322, 0.5434074997901917], [0.0032966516446322203, 0.18052273988723755, 0.41175809502601624, 0.19057616591453552, 0.021180743351578712, 0.2924361228942871, 0.25606897473335266, 0.23400600254535675, -0.25040122866630554, -0.019406689330935478, -0.7423418760299683, -0.35120269656181335, -0.11263695359230042, -0.23538725078105927, -0.15528778731822968, 0.06395480036735535], [-0.10221821814775467, 0.15727917850017548, -0.35435450077056885, 0.060899876058101654, -0.34311777353286743, -0.05547131225466728, 0.6032363176345825, -0.030723130330443382, 0.022390300408005714, -0.26428723335266113, 0.41418740153312683, 0.4048956334590912, 0.0088127963244915, -0.47953155636787415, 0.015853475779294968, 0.09535923600196838], [0.3803073763847351, -0.03823815658688545, 0.07791803032159805, 0.18717384338378906, 0.02920650690793991, -0.023882780224084854, -0.02638521045446396, 0.12950178980827332, 0.16923239827156067, -0.20713403820991516, -0.2939835488796234, -0.025186287239193916, -0.1506112962961197, 0.16055871546268463, 0.2499360889196396, 0.4034003019332886], [0.0775100365281105, 0.006383988074958324, 0.3083203136920929, 0.24135619401931763, 0.06768172234296799, -0.06437550485134125, -0.09597697854042053, -0.26431360840797424, 0.18025003373622894, 0.1742868274450302, 0.8311700224876404, -0.2501548230648041, 0.07062681019306183, 0.03710396960377693, 0.4382994472980499, 0.03598061576485634], [-0.027532391250133514, -0.03098255768418312, 0.3131183087825775, 0.14271415770053864, -0.039553478360176086, 0.03141086548566818, -0.15999388694763184, 0.04354340583086014, -0.11920208483934402, 0.1431543231010437, -0.1265120953321457, 0.533072829246521, 0.024885231629014015, 0.09885591268539429, -0.13417480885982513, -0.018685296177864075], [-0.04879004508256912, -0.15594923496246338, 0.5784128308296204, 0.024853821843862534, -0.11587760597467422, -0.39046695828437805, -0.36372339725494385, 0.1856711059808731, 0.41202300786972046, -0.3718438744544983, -0.4608635902404785, -0.16854478418827057, -0.37254610657691956, -0.10678200423717499, -0.13373816013336182, -0.2473512887954712], [-0.03483984246850014, 0.010127668268978596, 0.16832749545574188, -0.31921592354774475, 0.24600647389888763, -0.04104456678032875, 0.03288960084319115, 0.08097703009843826, -0.01297786459326744, 0.0007729831850156188, -0.041175976395606995, -0.18506553769111633, 0.03701985627412796, -0.0044025639072060585, 0.15998892486095428, 0.007491318043321371], [0.00706352898851037, 0.028439078480005264, 0.04240156337618828, -0.27350595593452454, -0.05117155984044075, 0.017715321853756905, -0.07804177701473236, 0.22423629462718964, 0.09618744254112244, 0.051320988684892654, 0.09260770678520203, -0.08058425784111023, 0.03484645113348961, -0.021402152255177498, -0.13212426006793976, 0.04390474408864975], [-0.013914594426751137, 0.01997228153049946, 0.48244449496269226, -0.15060235559940338, 0.18129436671733856, 0.25321802496910095, -0.13121557235717773, -0.02812901698052883, 0.2727244198322296, 0.020596850663423538, -0.05326453968882561, 0.18314199149608612, 0.020342253148555756, -0.07233021408319473, -0.22930766642093658, -0.040383122861385345], [0.1225670799612999, -0.1786513328552246, -0.3640197217464447, -0.36218127608299255, -0.19359663128852844, -0.45397183299064636, 0.24872219562530518, -0.060093045234680176, 0.2790687382221222, 0.15770742297172546, -0.09269637614488602, 0.017517272382974625, 0.48733413219451904, 0.09740140289068222, -0.23703552782535553, -0.19146235287189484], [-0.36991703510284424, 0.32621708512306213, 0.13564372062683105, -0.4336526393890381, 0.01748289354145527, 0.19211280345916748, -0.3064609467983246, -0.4715580642223358, 0.20442871749401093, 0.18130329251289368, 0.10024091601371765, -0.1317560076713562, -0.3301062285900116, 0.27372777462005615, 0.09186352789402008, 0.17038004100322723], [0.1848287731409073, -0.25618383288383484, 0.18829984962940216, -0.4466734528541565, 0.05850794166326523, 0.061633143573999405, -0.36680537462234497, 0.035833779722452164, 0.2219277173280716, 0.46744996309280396, -0.288849800825119, 0.16356422007083893, -0.07589969038963318, 0.10675845295190811, 0.14050664007663727, 0.14169830083847046], [0.05690068006515503, 0.327250212430954, -0.43616610765457153, -0.058632295578718185, 0.4559667110443115, -0.03941214084625244, -0.7068958282470703, -0.13090583682060242, 0.4815528392791748, 0.17006264626979828, -0.007768252398818731, 0.39295244216918945, 0.45407775044441223, -0.3917859196662903, -0.14812666177749634, -0.06642115116119385], [0.16898156702518463, -0.060422178357839584, 0.4127282500267029, -0.016350559890270233, -0.14220421016216278, -0.1336231678724289, 0.06503191590309143, -0.3205295205116272, -0.3020741641521454, 0.39530858397483826, -1.0161312818527222, 0.020769955590367317, 0.4602726697921753, -0.2565789818763733, -0.027713004499673843, -0.3736843466758728], [-0.4688573181629181, -0.13257379829883575, -0.043695367872714996, 0.02785024419426918, 0.41469794511795044, 0.26968908309936523, 0.09473060816526413, -0.08662853389978409, 0.28729012608528137, -0.08070152997970581, 0.04816083982586861, 0.3200839161872864, -0.2545391321182251, -0.08340459316968918, 0.1141570433974266, -0.010553570464253426], [-0.09740893542766571, -0.08657862991094589, -0.011971757747232914, 0.24531437456607819, -0.5568398237228394, 0.07834852486848831, -0.20787188410758972, 0.07345903664827347, -0.3499631881713867, -0.28472670912742615, -0.1043689101934433, 0.4464881420135498, -0.14510782063007355, 0.14147217571735382, -0.43418046832084656, -0.04960015416145325], [-0.006860080640763044, -0.01196499727666378, -0.1773327887058258, -0.14369212090969086, 0.0938185602426529, -0.054465726017951965, 0.1700834482908249, 0.4807409644126892, -0.08762291073799133, -0.18502385914325714, -0.06945303082466125, 0.8268851637840271, -0.12874597311019897, 0.0724833533167839, -0.3074137568473816, 0.059547532349824905], [-0.03352842479944229, -0.07585740834474564, 0.3510080575942993, 0.03421102836728096, 0.7452675104141235, 0.395181804895401, -0.1215965747833252, -0.04792151227593422, 0.44776973128318787, 0.49405229091644287, -0.4309298098087311, 0.3314334750175476, -0.1657637059688568, -0.05191753804683685, -0.29027462005615234, -0.08513899892568588], [0.01101473905146122, 0.02499677613377571, 0.07628609985113144, -0.01946643367409706, 0.01486905012279749, 0.10761100053787231, 0.08408588171005249, 0.04000384360551834, -0.06251465529203415, 0.06059080734848976, -0.04157532379031181, 0.026252901181578636, 0.053044598549604416, -0.04143548011779785, 0.01913604326546192, 0.03203723579645157], [0.018536265939474106, 0.006071086041629314, -0.24021942913532257, -0.3028949797153473, -0.038273777812719345, 0.06021858751773834, 0.03452344611287117, -0.17583830654621124, 0.0348283126950264, 0.03613357990980148, -0.17026124894618988, -0.03388854116201401, 0.02313850261271, -0.0332566499710083, 0.1292852908372879, 0.00823419913649559], [-0.03127747401595116, -0.03957582637667656, -0.0718211755156517, -0.2326313704252243, 0.1854773759841919, 0.06939493864774704, 0.19713081419467926, 0.23354904353618622, -0.08313878625631332, 0.15785712003707886, 0.1929858773946762, -0.0010728426277637482, -0.10506409406661987, 0.051761772483587265, 0.0316309817135334, 0.11466579139232635]], "1_weights": [[0.09397374838590622, 0.5044928193092346, -0.33614957332611084, 0.3730042576789856, 0.41623255610466003, 0.2545469105243683, -3.353025197982788, -0.9680241346359253, -0.7188847661018372, -2.110433340072632, -0.4524875581264496, -0.18833625316619873, -0.3024478852748871, -1.1341570615768433, 0.12411560863256454, 0.3859744668006897], [0.7875581383705139, -1.1198538541793823, -0.8807435631752014, -0.21675704419612885, 0.25503087043762207, -0.06322215497493744, -3.344099283218384, -0.3172107934951782, -2.2384843826293945, -0.10968618094921112, -0.465506374835968, 1.4294198751449585, -0.23948884010314941, -0.6339795589447021, -0.40632814168930054, -0.43561145663261414], [0.3541698753833771, -0.515801191329956, 0.1953880488872528, 0.46659550070762634, -0.1920464038848877, -0.2603136897087097, 0.45595812797546387, 0.6398944854736328, -0.13215884566307068, -0.7905700206756592, 0.192291259765625, -0.2781365215778351, 0.37204310297966003, 0.04292949661612511, 0.4000305235385895, 0.02877185121178627], [-0.5082059502601624, -0.052769921720027924, 0.15201938152313232, 0.0979195162653923, 0.5053396224975586, -0.18847079575061798, -0.6316364407539368, -0.4683534801006317, 0.38955703377723694, -0.24615409970283508, -0.34687069058418274, -0.6454435586929321, 0.26027682423591614, 0.5271313786506653, 0.20023123919963837, -0.5907719731330872], [-0.2266281396150589, -0.06874065846204758, 0.03728320822119713, 0.23027777671813965, -0.5056653618812561, 0.3138062059879303, -2.5578205585479736, -0.4657212495803833, 0.250232458114624, -0.021353457123041153, -0.294389009475708, 0.13915710151195526, 0.5398389101028442, -0.19665656983852386, 0.06415223330259323, 0.011946282349526882], [0.20147405564785004, -0.2750430107116699, 1.1954046487808228, 0.8263656497001648, -0.6212840676307678, -0.3695615828037262, -0.9370536804199219, 2.060832977294922, -0.7976389527320862, -0.7361548542976379, 0.4411955177783966, -0.16683830320835114, -0.4993817210197449, -0.3773404657840729, -0.5936771035194397, -0.05149779096245766], [-0.1340382993221283, -0.3683469891548157, -0.5307575464248657, -0.23125675320625305, 0.3910881578922272, 0.09117688238620758, 0.17560014128684998, -0.07439623773097992, -1.3995105028152466, -1.4206329584121704, 0.5067908763885498, 0.022315744310617447, -0.35678544640541077, 0.03500203788280487, 0.2146708369255066, 0.033972542732954025], [0.47773313522338867, -0.1592048555612564, 0.3724718689918518, 0.33039432764053345, 0.1806529462337494, -0.05024496838450432, 0.055230796337127686, 0.05271626636385918, 0.6673190593719482, -0.3587177097797394, 0.04123254492878914, 0.3789777159690857, -0.554660439491272, 0.3228764235973358, 0.401456356048584, 0.018451202660799026], [0.10622845590114594, -0.4848540127277374, -0.4958496391773224, -0.7221177816390991, -0.1298229992389679, -0.4105304479598999, -0.8546421527862549, -0.1498928666114807, -0.07310401648283005, -0.3625864088535309, -0.12167049944400787, -0.1312544047832489, -0.892785370349884, 0.11230745911598206, -0.6678399443626404, -0.11266623437404633], [0.13601462543010712, -0.08415374904870987, -0.6553679704666138, -0.0034919141326099634, -0.07714475691318512, -0.3470201790332794, 0.19518879055976868, 0.6484814882278442, 0.28574371337890625, -0.08229276537895203, -0.007389728911221027, 0.010559947229921818, 0.37161484360694885, 0.6110774874687195, -0.4676017463207245, 0.09886794537305832], [0.30424755811691284, -0.11312881112098694, -0.18230679631233215, -0.011582243256270885, -0.2100462019443512, -1.1566760540008545, 1.637014627456665, 1.0547327995300293, 0.9643313884735107, 0.9055797457695007, 0.4993281960487366, 0.05308029428124428, -2.10819149017334, 1.4642916917800903, -0.5797916650772095, -0.07700753211975098], [-0.24044397473335266, 0.15174062550067902, 0.23827748000621796, -0.022776300087571144, -0.9361106157302856, 0.37702828645706177, -0.48960915207862854, -0.19460530579090118, 0.5378913879394531, 0.13313299417495728, 0.23571345210075378, -0.04599553719162941, 0.1987406462430954, -0.5853148102760315, -0.3811798691749573, 0.08734180778265], [-0.3683805465698242, 0.6208074688911438, 0.4213850498199463, 0.31922662258148193, -0.0886773094534874, 0.8168211579322815, -0.6158186197280884, -0.2972170114517212, -0.04543406888842583, -0.6168749332427979, -0.47941088676452637, -0.44663432240486145, -0.1130700334906578, -0.06941789388656616, -0.28409653902053833, 0.27259233593940735], [0.12046001851558685, 0.31956788897514343, 0.00476683909073472, 0.27483198046684265, 0.8083248734474182, 0.47713178396224976, 0.2627866268157959, -0.4193635582923889, 0.016766605898737907, -2.1358065605163574, -0.28096911311149597, 0.05944984033703804, 0.48093006014823914, -1.1243422031402588, -0.8865580558776855, -0.24804645776748657], [0.1674036979675293, 0.16021104156970978, 0.20600305497646332, -0.11072323471307755, -0.5269402861595154, 0.1452815979719162, -0.12247315794229507, -0.4270000457763672, 0.3938499987125397, -0.45987391471862793, -0.14549580216407776, -0.08654189854860306, 0.0741957500576973, -0.7217078804969788, 0.23435629904270172, -0.1779702752828598], [0.4897037148475647, 0.3493281900882721, 0.8473283648490906, 0.1305633783340454, 0.6600912809371948, 0.4614260792732239, -0.3357064723968506, -0.584240198135376, -0.352455198764801, -0.40729570388793945, -0.18261252343654633, 0.23175588250160217, -0.35719940066337585, -0.4071647822856903, -0.833752453327179, -0.7105135321617126]], "2_weights": [[-0.35845401883125305, -0.2690798342227936, -0.29020097851753235], [-0.4241013824939728, -0.40155908465385437, -0.3367011249065399], [0.5442445874214172, 0.546552836894989, 0.5494721531867981], [-0.21592961251735687, -0.16437475383281708, -0.30786842107772827], [-0.5138771533966064, -0.4593140184879303, -0.5072306990623474], [-0.38227659463882446, -0.406491756439209, -0.5227435231208801], [6.68337345123291, 6.443598747253418, 6.500253677368164], [0.2818228602409363, 0.3863450288772583, 0.4319145381450653], [-0.38945549726486206, -0.4484066367149353, -0.5511820912361145], [-1.623217225074768, -2.2231640815734863, -2.567021608352661], [-0.39319485425949097, -0.3821699023246765, -0.4707404375076294], [-0.15123356878757477, 0.21685324609279633, 0.28563493490219116], [0.1666652262210846, 0.18009968101978302, 0.23082101345062256], [0.5459112524986267, 0.6862202882766724, 0.8347870111465454], [-0.017411794513463974, -0.16990821063518524, 0.544188380241394], [0.29535120725631714, 0.01065730769187212, -0.0848369374871254]], "0_bias": [-0.11863699555397034, 0.05111083388328552, 0.15444688498973846, -0.16430212557315826, 0.04698312282562256, -0.12191860377788544, 0.0009498190484009683, -0.12472472339868546, -0.06986088305711746, 0.19365201890468597, -0.12551935017108917, 0.14474350214004517, 0.07865182310342789, -0.14553365111351013, 0.03824499249458313, -0.2662371098995209], "1_bias": [-0.20728901028633118, -0.06037987396121025, -0.7561837434768677, -0.2830939292907715, -0.36451831459999084, 0.18089401721954346, 0.40865007042884827, -0.01950840651988983, -0.31996986269950867, 0.65541011095047, 0.514906644821167, -0.012494859285652637, -0.19234371185302734, -0.3361683487892151, -0.2993076741695404, 0.04252069070935249], "2_bias": [0.10293933004140854, 0.00011837783677037805, -0.1788296401500702]}