{"triplane_resolution": 2048, "triplane_voxel_size": 0.001953125, "sparse_grid_resolution": 512, "sparse_grid_voxel_size": 0.0078125, "range_features": [-7.0, 7.0], "range_density": [-14.0, 14.0], "data_block_size": 8, "atlas_width": 1800, "atlas_height": 513, "atlas_depth": 9, "num_slices": 9, "slice_depth": 1, "0_weights": [[-1.5310852527618408, 0.7868824005126953, 0.04335629194974899, -0.0946458950638771, 0.2243717610836029, 0.8178273439407349, 0.4056597948074341, -0.16785524785518646, -0.4998336732387543, 0.48517751693725586, -0.539587140083313, -0.24624419212341309, 0.15254458785057068, -0.0005172924720682204, -1.2278207540512085, -2.097215175628662], [-0.021302491426467896, 1.9344680309295654, 0.13783374428749084, 0.37334826588630676, 0.4253135621547699, 0.13289901614189148, 0.8968114852905273, 0.636801540851593, -0.8418349027633667, -1.2178517580032349, 0.9505578875541687, 0.6490160226821899, 0.8515370488166809, 0.4839748442173004, 0.2641187608242035, 0.36141806840896606], [-0.16035161912441254, -1.3411093950271606, 1.2782526016235352, -1.0321784019470215, 0.9811941385269165, 0.8386335968971252, 0.9026650190353394, 1.4071820974349976, -0.5023264288902283, -0.4300542175769806, 0.07660006731748581, 0.7541441917419434, 1.1256297826766968, 0.4287627637386322, -0.5377486944198608, -1.192194938659668], [6.646673679351807, 0.7889682054519653, -0.04910466447472572, -4.985673427581787, 2.0169577598571777, 0.34761470556259155, 1.0138651132583618, -0.29232048988342285, -0.769203782081604, -3.388577938079834, -0.989445149898529, -3.4796066284179688, 0.7716576457023621, 2.7006466388702393, -2.4101672172546387, -1.3152329921722412], [-0.8081046342849731, -0.19845141470432281, -0.744820773601532, -0.13352972269058228, -0.5286318063735962, -2.756141424179077, -0.39781707525253296, 0.5638603568077087, -0.2966603934764862, -0.1299223005771637, 0.8251962661743164, 1.3381178379058838, -0.5313108563423157, -0.6136923432350159, 0.6670357584953308, 0.08665534108877182], [1.6069104671478271, -0.4663841724395752, 1.0975406169891357, 0.16580674052238464, 0.3560127913951874, 0.7146974205970764, 0.45667600631713867, -0.30973678827285767, -0.55897057056427, -0.30542948842048645, -7.5193281173706055, -5.6297736167907715, 0.29695385694503784, 0.8410199880599976, -0.4887238144874573, -0.23160283267498016], [-0.14466872811317444, -0.4431743323802948, 0.025478478521108627, -1.2882030010223389, -6.053396224975586, 0.5592965483665466, 0.8558385968208313, 1.1090011596679688, -0.2616652548313141, -6.196109294891357, -1.0378073453903198, -1.0031131505966187, -0.6907901167869568, 0.7925648093223572, -0.6062182784080505, -0.16563665866851807], [-0.42394980788230896, 0.43009915947914124, -0.43659383058547974, 0.1775183528661728, 0.2909921705722809, 0.133597731590271, 0.0516175702214241, -0.4791508913040161, -0.3292137384414673, -0.15077733993530273, 0.04902910813689232, 0.31812921166419983, 0.2788304388523102, 0.6205757260322571, 0.03765685856342316, 0.11608719080686569], [0.20416328310966492, 0.13797864317893982, 0.2608503997325897, -0.09335476160049438, -0.08750870823860168, -0.21031515300273895, 0.18585364520549774, -0.315444678068161, -0.403478741645813, 0.1698124259710312, 0.3264772295951843, 0.09205850213766098, -0.3308241069316864, 0.21174518764019012, 0.028014658018946648, -0.20745402574539185], [-0.24390512704849243, 0.43384692072868347, -0.2553248703479767, 0.01072092354297638, 0.3770907521247864, 0.15627151727676392, -0.3019847273826599, 0.17980238795280457, 0.5188819169998169, -0.23492442071437836, 0.21529263257980347, -0.662914514541626, 0.11242344975471497, -0.19367505609989166, -0.23723751306533813, -0.3240640163421631], [-0.02463666722178459, -0.0753544494509697, -0.6509138345718384, -0.015847165137529373, -0.3291786313056946, -0.025903480127453804, -0.04427068307995796, -0.2161802351474762, -0.767812967300415, 0.4166836738586426, 0.27175745368003845, 0.1947902888059616, -0.006693983916193247, -0.08878248929977417, 0.0783081203699112, -0.33661818504333496], [-0.1995621770620346, 0.04210846498608589, -0.40415918827056885, 0.21892903745174408, 0.3127363324165344, -0.028640177100896835, 0.3035421073436737, -0.6207654476165771, -0.06895875185728073, -0.2528832256793976, 0.11291737854480743, -0.422303169965744, 0.16044951975345612, 0.09315969794988632, 0.07877744734287262, -0.21420249342918396], [-0.9118620157241821, 0.3134663999080658, -0.26931777596473694, -0.4152613580226898, -0.2301904410123825, -0.29621943831443787, -0.06737931072711945, 0.01961333490908146, 0.1561618596315384, 0.048476021736860275, 0.31165409088134766, -0.4224928617477417, 0.6720839738845825, 0.2662072479724884, 0.08618184924125671, 0.3043597340583801], [0.2667725682258606, 0.07246288657188416, 0.08687178045511246, 0.22842155396938324, 0.03072039783000946, 0.21280239522457123, -0.022539490833878517, 0.037004921585321426, -0.6348300576210022, -0.33353590965270996, -0.3583245575428009, -0.3346690535545349, 0.16353757679462433, 0.02668210305273533, 0.3264245092868805, 0.12040437757968903], [0.2818368971347809, 0.16562001407146454, -0.008329727686941624, 0.13231877982616425, -0.35979753732681274, -0.10456374287605286, 0.3742910921573639, -0.35610610246658325, -0.4701796770095825, 0.21544604003429413, 0.3787078857421875, -0.01995478756725788, 0.13241133093833923, -0.3849011957645416, -0.0700644999742508, -0.06043621152639389], [-0.13616444170475006, 0.21363882720470428, -0.07758007943630219, -0.2499397099018097, 0.018897591158747673, -0.047730810940265656, -0.31805309653282166, 0.10382166504859924, 0.36934977769851685, -0.31860223412513733, -0.3063663840293884, -0.48312899470329285, 0.1527465581893921, 0.05673385411500931, 0.12061487883329391, 0.22332796454429626], [-0.07774695754051208, -0.01949666254222393, 0.2834632992744446, 0.0302786473184824, 0.15686634182929993, -0.07883775234222412, 0.011573915369808674, -0.2482730597257614, 0.23901696503162384, 0.009465169161558151, -0.12429812550544739, 0.2865542471408844, -0.06592420488595963, 0.07335666567087173, 0.6732025146484375, 0.00377983832731843], [-0.14228735864162445, 0.09256371855735779, -0.28573909401893616, -0.2483939826488495, -0.2309044897556305, -0.29228079319000244, 0.44367045164108276, -0.09595280140638351, -0.1734350025653839, 0.3224313259124756, -0.022067630663514137, 0.5074940919876099, -0.14128705859184265, -0.26433345675468445, 0.0887981727719307, 0.12487372756004333], [-0.03866041824221611, 0.03938983008265495, 0.6810079216957092, -0.463279128074646, -0.23748792707920074, -0.4369361698627472, -0.5290306210517883, 0.44598066806793213, 0.4890716075897217, -0.3380877375602722, -0.05187799409031868, -0.7472787499427795, -0.39914047718048096, -0.17148633301258087, -0.23176583647727966, -0.11984875053167343], [0.004994290415197611, -0.06446094810962677, -0.07704267650842667, -0.09397479146718979, 0.01722795143723488, 0.019455133005976677, 0.0063696494325995445, 0.8295849561691284, -0.06919146329164505, 0.0012749030720442533, 0.045072127133607864, 0.17110675573349, -0.05006195977330208, 0.017129790037870407, -0.0949212983250618, 0.00268246466293931], [-0.03158609941601753, -0.06267623603343964, -0.12022961676120758, -0.3389627933502197, -0.06851185858249664, -0.18799693882465363, -0.05882665887475014, -0.147783100605011, -0.016716666519641876, -0.05467787757515907, -0.3065705895423889, 0.2780396342277527, -0.433694988489151, -0.040687914937734604, -0.008661656640470028, 0.04493917524814606], [-0.6369765996932983, 0.17350614070892334, 0.308761328458786, -0.35653090476989746, -0.036179739981889725, 0.08304727077484131, -0.04507899656891823, 0.8092406392097473, 0.43217286467552185, -0.02762773260474205, 0.2861959934234619, 0.43757855892181396, 0.3415977358818054, -0.22299519181251526, 0.11775906383991241, 0.08421461284160614], [0.29820170998573303, -0.25656765699386597, -0.4875377118587494, -0.043394386768341064, -0.4309851825237274, -0.5046888589859009, 0.417284220457077, -0.4018220901489258, 0.23578618466854095, 0.09280050545930862, -0.014317076653242111, -0.6118561029434204, 0.25792473554611206, 0.20314989984035492, -0.2894381880760193, 0.10069777816534042], [-0.22969970107078552, 0.3007069528102875, -0.2519523799419403, -0.2047065943479538, -0.15368327498435974, 0.22648468613624573, -0.2749113440513611, -0.7003964185714722, 0.28614869713783264, 0.12547345459461212, 0.28369033336639404, -0.5532522797584534, -0.5233040452003479, 0.35918301343917847, 0.10104235261678696, 0.5076340436935425], [0.2899859845638275, -0.33318421244621277, -0.03938324376940727, -0.17930494248867035, -0.16319139301776886, 0.02859378792345524, -0.26739972829818726, -0.20933377742767334, 0.2021728754043579, 0.3481270968914032, -0.26046857237815857, -0.3557344675064087, -0.2707657814025879, 0.2403421849012375, 0.12156673520803452, 0.4483431577682495], [0.3895326554775238, 0.18083591759204865, -0.040663935244083405, 0.34577274322509766, 0.07460227608680725, -0.37819844484329224, -0.08963131159543991, -0.6389085054397583, 0.3055390417575836, 0.1664414405822754, 0.018256181851029396, -0.8039149045944214, 0.11037345230579376, -0.24037626385688782, -0.3883373737335205, 0.10841674357652664], [0.11772078275680542, 0.15795107185840607, -0.4265747368335724, -0.5897969603538513, -0.24423187971115112, -0.19882768392562866, 0.06946077942848206, -0.2856035828590393, 0.6856399774551392, 0.48599523305892944, -0.23867091536521912, 0.09030701965093613, 0.5194141268730164, -0.2788114845752716, 0.2609705626964569, 0.09051144868135452], [-0.45685285329818726, -0.308836430311203, -0.20788493752479553, 0.2556092441082001, 0.11599112302064896, 0.17418323457241058, 0.2250339537858963, -0.2535156011581421, 0.18858037889003754, -0.3386954665184021, -0.12754645943641663, -0.21555295586585999, -0.43308016657829285, 0.13425575196743011, 0.09310036897659302, 0.28561681509017944], [-0.3428103029727936, 0.06836694478988647, 0.4489404857158661, 0.016623295843601227, -0.45109823346138, 0.22966362535953522, 0.14257512986660004, -0.15849758684635162, -0.055952638387680054, 0.06949825584888458, 0.06182842329144478, -0.43772900104522705, 0.345419704914093, -0.08761122077703476, 0.18374507129192352, 0.16022899746894836], [-0.07021155953407288, 0.19304467737674713, 0.18168595433235168, -0.360417902469635, 0.29367417097091675, 0.3807079792022705, 0.07145843654870987, 0.766286313533783, 0.1759810447692871, -0.2639651596546173, 0.3725372552871704, 0.35766667127609253, 0.33328819274902344, 0.3537346124649048, -0.0467599481344223, -0.3934803903102875], [-0.13562574982643127, -0.39703628420829773, 0.3123868703842163, -0.4457661509513855, -0.6055675148963928, -0.31932172179222107, 0.21867839992046356, 0.12055647373199463, -0.1728786826133728, 0.15090370178222656, -0.8391644954681396, 0.32620781660079956, -0.38051918148994446, 0.39651307463645935, -0.44597315788269043, 0.21019728481769562], [0.024926505982875824, -0.02453639544546604, -0.049409959465265274, 0.000666265026666224, 0.08636850118637085, 0.012497404590249062, -0.03416405990719795, 0.12358060479164124, 0.0760493129491806, -0.0628272220492363, -0.030443601310253143, -0.08447468280792236, -0.07943738996982574, 0.04579591751098633, 0.20628488063812256, -0.022130200639367104], [-0.2185177057981491, -0.07932975143194199, 0.44256845116615295, -0.23008954524993896, -0.37112462520599365, 0.29728832840919495, 0.06552925705909729, -0.08912867307662964, 0.2980623245239258, -0.12062761932611465, -0.03192960098385811, -0.06622333079576492, 0.10335448384284973, -0.008171026594936848, -0.43526631593704224, 0.004197790287435055], [0.02191041223704815, 0.3056947588920593, 0.2087874859571457, -0.25518080592155457, 0.01691949926316738, -0.31364795565605164, -0.2794150412082672, 0.778205931186676, -0.19468164443969727, -0.1464444249868393, -0.10642361640930176, -0.47637152671813965, 0.39013051986694336, -0.3283272087574005, -0.5920165777206421, -0.08706159144639969]], "1_weights": [[0.127141535282135, 0.22041429579257965, 0.5709169507026672, 0.2602386474609375, 0.4553423821926117, 0.9286572933197021, -3.0699055194854736, 0.13582304120063782, -0.3131955564022064, -2.6276023387908936, -0.21014714241027832, 0.12907947599887848, 0.5212036371231079, -0.4268608093261719, -0.07165034860372543, 0.6822099685668945], [-0.003849881934002042, -0.19993892312049866, 0.06355416029691696, -0.08051224052906036, 0.454852819442749, -0.3880450129508972, -1.2427303791046143, -0.3907025456428528, -0.9452731013298035, -0.5209944248199463, 0.0014620188158005476, 0.9460352063179016, -0.07624027878046036, 0.6752028465270996, -0.10605126619338989, 0.5034154653549194], [0.07640253752470016, -0.23660194873809814, 0.26803091168403625, -0.2642047107219696, -0.18317823112010956, 0.3169458508491516, -0.30005815625190735, 0.2783878743648529, -0.3082931935787201, 0.44878455996513367, 0.32052212953567505, -0.44090744853019714, -0.30120521783828735, -0.21694524586200714, 0.6297520995140076, 0.5104045271873474], [-0.06963521242141724, -0.4824996888637543, 0.418226420879364, -0.15522125363349915, 0.08669731020927429, -0.4070650637149811, -0.6089766621589661, 0.46885982155799866, -0.2891906201839447, 0.3052503764629364, -0.32147398591041565, 0.20351622998714447, 0.5849606394767761, 0.3460554778575897, 0.5977557897567749, -0.25319069623947144], [0.13854342699050903, -2.7740726470947266, -0.8976424336433411, 0.4721713960170746, 1.254508376121521, 0.955552875995636, -0.49191197752952576, 1.8736965656280518, 0.38301023840904236, 4.491445064544678, 1.158771276473999, 0.5887792110443115, -2.07303524017334, 1.7212578058242798, 2.119964361190796, 1.1969045400619507], [0.633571982383728, -0.4623202085494995, 0.4643206000328064, 0.6722968816757202, 0.5283357501029968, 0.8324496150016785, -2.2586638927459717, -1.7727771997451782, 0.25565117597579956, 0.8423435091972351, 1.096011757850647, 0.8121950030326843, 3.0828425884246826, 0.5083873271942139, 0.8426172137260437, -2.1271774768829346], [-0.10537581145763397, -0.5907345414161682, -2.04464054107666, 0.23376132547855377, 0.10886512696743011, 0.2996987998485565, 0.33166396617889404, -0.5876269936561584, -0.37350454926490784, -0.20584408938884735, 0.5490105748176575, -0.7870134115219116, -0.6228018403053284, 0.25494372844696045, 0.3871918320655823, -0.1975107342004776], [-0.10187133401632309, -0.3182363212108612, 1.121744155883789, 0.25843989849090576, -0.45119962096214294, 0.5504278540611267, -0.40149667859077454, -0.2562224268913269, 0.1323816180229187, -4.590602397918701, 0.17100156843662262, -0.22362777590751648, 0.27104452252388, 0.22697238624095917, 0.08788225054740906, 0.6418939828872681], [0.1316567212343216, -0.013078642077744007, -0.2226405292749405, -0.2634994685649872, -0.04025796800851822, -0.09066760540008545, -0.1465180665254593, 0.2761532664299011, 0.2358810007572174, -4.059608459472656, -0.10124942660331726, 0.04182184115052223, 0.013784635812044144, 0.2806655764579773, -3.2337913513183594, 0.4384460151195526], [0.358574241399765, -0.7299057841300964, 0.5781316161155701, 0.13151447474956512, -0.044809963554143906, 0.03080427274107933, 0.3127679228782654, -0.20913487672805786, 0.6814064979553223, 0.41986319422721863, -0.584125280380249, -0.5663732886314392, 0.040289152413606644, -0.5910990834236145, -0.75632244348526, -0.0664786845445633], [-0.020935876294970512, 0.14611771702766418, 0.3694390654563904, 0.4761059284210205, 0.21568483114242554, -0.31093665957450867, -0.38836947083473206, 1.1613608598709106, 0.5064986348152161, 1.2461031675338745, 0.7381770014762878, 0.3695628046989441, -0.042463116347789764, -0.26465046405792236, -1.1145200729370117, 0.12126439809799194], [0.5873539447784424, 0.8727447390556335, -1.6134706735610962, -1.3584017753601074, -0.4860588610172272, -0.011967068538069725, -0.6841832399368286, 0.4389117658138275, -0.15392744541168213, 0.5954685211181641, 0.5085189342498779, -1.188740611076355, -0.34101057052612305, -0.4189293384552002, -0.3926003575325012, -0.14819103479385376], [-0.3073691129684448, -0.18911698460578918, -0.9988367557525635, 0.1488458216190338, -0.1310962438583374, 0.7151198387145996, -1.6670408248901367, -0.34674206376075745, -5.734954357147217, -0.4900590181350708, -0.21887536346912384, -0.24426642060279846, -1.152372121810913, -0.11901318281888962, 0.5265783071517944, -0.2034037560224533], [-0.3525625467300415, 0.36725324392318726, -0.6877771615982056, 0.19736583530902863, 0.356767475605011, 0.46661704778671265, -0.5687373876571655, 0.127217099070549, 0.6204824447631836, -0.5792624354362488, -0.12316782027482986, 0.2453879714012146, 0.549859881401062, 0.15222139656543732, -0.4420149326324463, -0.1368030607700348], [0.24157202243804932, 0.48811933398246765, -0.27534204721450806, -0.2833782732486725, -0.35573065280914307, -0.127157062292099, 0.20762164890766144, 0.14725349843502045, -0.48786860704421997, -3.1606338024139404, 0.3984724283218384, 0.15862910449504852, -0.24684293568134308, 0.12623555958271027, -0.6548174023628235, -0.11714968085289001], [-1.0315089225769043, 0.3609639108181, 0.5175683498382568, -0.32879045605659485, 0.3085196912288666, 0.39125117659568787, 0.26116877794265747, -0.9108640551567078, -1.7717559337615967, -2.2428948879241943, -0.9201707243919373, -0.2402217835187912, 0.28171902894973755, -0.12337569147348404, -0.626716136932373, 0.13513323664665222]], "2_weights": [[-0.5623445510864258, -0.058594051748514175, -0.03814147040247917], [-0.1348605453968048, 0.038384996354579926, 0.22725576162338257], [-0.3900163173675537, -0.11948806792497635, 0.35257554054260254], [-0.4149991273880005, -0.30421745777130127, -0.4322863221168518], [-0.1572892665863037, -0.24375532567501068, -0.00664029736071825], [-0.4402580261230469, -0.47625428438186646, -0.5197120308876038], [0.7590576410293579, 0.6626836657524109, 0.6948304772377014], [0.6214506030082703, 0.48028355836868286, 0.29004326462745667], [-0.2230597585439682, 0.2642989754676819, 0.27872520685195923], [-1.9916619062423706, -2.167703151702881, -1.9683235883712769], [-0.3040893077850342, -0.47401049733161926, -0.42622852325439453], [-0.25930094718933105, 0.02081621252000332, 0.6807921528816223], [0.6045764684677124, 0.570442259311676, 0.49780264496803284], [-0.3833862543106079, -0.23959213495254517, -0.19096791744232178], [-1.0259904861450195, -1.2723536491394043, -1.1450543403625488], [0.5039953589439392, 0.590302586555481, 0.5474629402160645]], "0_bias": [0.020782945677638054, -0.010297344997525215, -0.08958294987678528, 0.1115541085600853, -0.16186833381652832, -0.13693468272686005, 0.09694728255271912, -0.39162304997444153, -0.06806148588657379, 0.1128598004579544, -0.03384440019726753, -0.3763638138771057, -0.1274329274892807, -0.03688617795705795, 0.017919737845659256, 0.0450117364525795], "1_bias": [0.54169100522995, -0.041357532143592834, -0.5283712148666382, 0.20398253202438354, -0.02755560912191868, 0.03739634528756142, 0.021698597818613052, 0.15502288937568665, 0.1672072559595108, -0.39567193388938904, 0.2899245321750641, -0.268008828163147, -0.25683867931365967, -0.16327160596847534, -0.8727671504020691, -0.5565197467803955], "2_bias": [-0.2160312533378601, -0.052103012800216675, -0.09785500168800354]}